%YAML:1.0
opencv_ml_svm:
   format: 3
   svmType: C_SVC
   kernel:
      type: POLY
      degree: 3.
      gamma: 1.0000000000000000e-002
      coef0: 2.
   C: 1.
   term_criteria: { iterations:100 }
   var_count: 36
   class_count: 10
   class_labels: !!opencv-matrix
      rows: 10
      cols: 1
      dt: i
      data: [ 0, 1, 2, 3, 4, 5, 6, 7, 8, 9 ]
   sv_total: 49
   support_vectors:
      - [ 0., 12., 57., 0., 0., 38., 33., 0., 4., 59., 6., 0., 24., 59.,
          28., 2., 44., 49., 55., 31., 57., 10., 25., 50., 64., 8., 24.,
          62., 52., 28., 44., 36., 20., 59., 53., 7. ]
      - [ 61., 58., 56., 49., 64., 20., 41., 43., 22., 0., 44., 19., 0.,
          3., 61., 5., 0., 24., 47., 0., 0., 39., 23., 0., 1., 59., 9.,
          0., 17., 52., 0., 0., 32., 29., 0., 0. ]
      - [ 11., 44., 64., 44., 55., 53., 64., 42., 11., 8., 64., 40., 0.,
          16., 64., 38., 0., 16., 64., 24., 0., 17., 64., 24., 0., 24.,
          64., 17., 0., 24., 64., 16., 0., 28., 62., 10. ]
      - [ 6., 55., 60., 17., 39., 38., 34., 42., 45., 24., 23., 41., 48.,
          16., 26., 37., 53., 15., 32., 32., 56., 8., 35., 28., 59., 6.,
          40., 25., 60., 16., 50., 19., 31., 64., 44., 1. ]
      - [ 50., 64., 64., 45., 57., 23., 41., 37., 26., 0., 50., 15., 0.,
          11., 57., 1., 0., 33., 32., 0., 0., 54., 11., 0., 16., 53., 0.,
          0., 37., 26., 0., 0., 52., 8., 0., 0. ]
      - [ 0., 0., 29., 29., 0., 0., 57., 10., 0., 19., 47., 0., 0., 45.,
          23., 0., 6., 56., 8., 4., 32., 36., 39., 24., 52., 50., 57.,
          38., 43., 48., 63., 38., 0., 0., 56., 6. ]
      - [ 8., 44., 64., 40., 60., 64., 64., 32., 16., 26., 64., 20., 0.,
          32., 64., 11., 0., 43., 59., 2., 0., 56., 51., 0., 0., 64.,
          45., 0., 8., 64., 32., 0., 19., 61., 16., 0. ]
      - [ 0., 0., 40., 32., 0., 9., 61., 4., 0., 38., 36., 0., 6., 62.,
          46., 10., 32., 55., 50., 43., 52., 17., 25., 47., 61., 6., 33.,
          38., 63., 27., 55., 19., 30., 57., 35., 0. ]
      - [ 13., 58., 60., 14., 44., 41., 41., 43., 32., 7., 17., 47., 0.,
          5., 43., 34., 0., 29., 64., 18., 0., 0., 31., 36., 32., 0.,
          28., 39., 63., 22., 49., 27., 29., 63., 52., 6. ]
      - [ 14., 62., 62., 15., 44., 30., 28., 42., 19., 5., 17., 43., 0.,
          6., 45., 27., 0., 21., 61., 15., 0., 0., 27., 36., 29., 0.,
          26., 33., 61., 22., 47., 26., 29., 61., 46., 3. ]
      - [ 6., 51., 59., 21., 33., 42., 30., 48., 16., 8., 16., 46., 0.,
          0., 38., 28., 0., 10., 54., 3., 0., 44., 22., 0., 17., 50., 0.,
          0., 50., 30., 8., 1., 61., 64., 64., 13. ]
      - [ 61., 64., 60., 49., 64., 38., 52., 55., 35., 2., 46., 27., 0.,
          4., 63., 10., 0., 25., 54., 0., 0., 38., 33., 0., 1., 59., 16.,
          0., 17., 59., 2., 0., 30., 36., 0., 0. ]
      - [ 45., 64., 64., 45., 48., 38., 24., 15., 51., 16., 0., 0., 56.,
          55., 54., 12., 56., 39., 50., 40., 11., 1., 32., 48., 28., 3.,
          32., 41., 61., 30., 48., 33., 26., 61., 52., 6. ]
      - [ 47., 56., 56., 37., 58., 37., 53., 38., 33., 0., 48., 21., 0.,
          7., 61., 2., 0., 24., 43., 0., 0., 47., 25., 0., 5., 63., 3.,
          0., 23., 46., 0., 0., 39., 23., 0., 0. ]
      - [ 42., 56., 57., 43., 64., 46., 61., 37., 49., 3., 56., 18., 0.,
          9., 59., 2., 0., 28., 39., 0., 0., 49., 19., 0., 6., 59., 1.,
          0., 26., 43., 0., 0., 42., 21., 0., 0. ]
      - [ 27., 61., 64., 44., 40., 51., 32., 13., 42., 26., 2., 0., 48.,
          64., 61., 11., 48., 41., 57., 31., 13., 1., 48., 32., 28., 2.,
          49., 23., 60., 33., 60., 9., 28., 59., 27., 0. ]
      - [ 19., 61., 54., 11., 54., 32., 42., 42., 63., 8., 21., 64., 61.,
          9., 21., 54., 47., 44., 52., 35., 8., 39., 64., 16., 0., 16.,
          55., 0., 0., 43., 31., 0., 1., 59., 8., 0. ]
      - [ 8., 39., 62., 45., 57., 59., 64., 42., 13., 8., 64., 40., 0.,
          15., 64., 34., 0., 16., 64., 30., 0., 23., 64., 16., 0., 24.,
          64., 15., 0., 32., 64., 8., 0., 27., 56., 2. ]
      - [ 0., 0., 45., 11., 0., 11., 53., 0., 0., 31., 29., 0., 0., 54.,
          9., 0., 16., 51., 4., 1., 37., 24., 39., 16., 55., 47., 56.,
          32., 37., 40., 61., 38., 0., 0., 46., 7. ]
      - [ 3., 45., 57., 13., 30., 47., 40., 42., 15., 14., 24., 43., 0.,
          3., 40., 31., 0., 21., 64., 13., 0., 0., 35., 29., 19., 1.,
          32., 31., 59., 17., 47., 21., 31., 64., 51., 4. ]
      - [ 23., 59., 63., 13., 64., 56., 64., 16., 10., 9., 64., 20., 0.,
          8., 64., 24., 0., 0., 64., 33., 0., 0., 64., 40., 0., 0., 57.,
          40., 0., 0., 56., 47., 0., 0., 44., 44. ]
      - [ 32., 63., 41., 1., 62., 21., 52., 19., 26., 0., 40., 24., 0.,
          0., 53., 15., 0., 18., 53., 0., 0., 47., 28., 0., 11., 59., 2.,
          0., 38., 50., 18., 8., 37., 56., 62., 43. ]
      - [ 30., 60., 46., 6., 62., 30., 47., 33., 64., 8., 32., 40., 64.,
          8., 29., 40., 58., 11., 24., 47., 56., 16., 24., 48., 56., 16.,
          24., 48., 47., 32., 35., 46., 10., 53., 58., 18. ]
      - [ 61., 63., 56., 25., 64., 17., 19., 9., 63., 0., 0., 0., 56.,
          49., 54., 11., 54., 24., 40., 40., 3., 0., 18., 48., 24., 2.,
          16., 48., 50., 20., 29., 43., 14., 52., 54., 14. ]
      - [ 24., 59., 49., 6., 61., 24., 40., 35., 62., 0., 24., 40., 56.,
          0., 23., 40., 56., 0., 20., 42., 56., 4., 20., 45., 56., 8.,
          16., 47., 53., 20., 29., 45., 18., 60., 59., 16. ]
      - [ 22., 62., 58., 9., 55., 15., 33., 38., 17., 1., 24., 41., 0.,
          3., 39., 33., 0., 20., 60., 11., 0., 0., 26., 37., 20., 0.,
          24., 40., 61., 10., 33., 36., 26., 62., 57., 9. ]
      - [ 41., 56., 56., 40., 48., 35., 24., 15., 48., 13., 0., 0., 48.,
          49., 52., 9., 54., 34., 52., 32., 10., 0., 35., 32., 26., 0.,
          40., 32., 62., 9., 49., 24., 29., 63., 48., 2. ]
      - [ 6., 52., 59., 16., 36., 47., 39., 45., 21., 13., 19., 48., 0.,
          6., 42., 37., 0., 20., 62., 21., 0., 0., 35., 37., 28., 2.,
          34., 33., 61., 25., 50., 30., 29., 63., 52., 5. ]
      - [ 5., 45., 53., 14., 36., 47., 45., 43., 48., 22., 24., 46., 48.,
          16., 31., 39., 50., 16., 33., 32., 56., 11., 36., 32., 63., 6.,
          41., 26., 64., 18., 56., 15., 37., 64., 44., 1. ]
      - [ 7., 39., 62., 44., 58., 59., 64., 43., 14., 8., 64., 40., 0.,
          14., 64., 26., 0., 16., 64., 22., 0., 21., 64., 16., 0., 24.,
          64., 14., 0., 30., 64., 8., 0., 32., 64., 2. ]
      - [ 9., 52., 61., 19., 39., 37., 33., 44., 20., 9., 20., 40., 0.,
          0., 42., 22., 0., 13., 53., 1., 0., 47., 20., 0., 13., 51., 1.,
          0., 45., 29., 8., 1., 64., 64., 64., 17. ]
      - [ 10., 56., 60., 19., 41., 30., 35., 43., 54., 10., 24., 46.,
          61., 8., 28., 36., 53., 41., 57., 18., 14., 45., 57., 1., 0.,
          34., 28., 0., 4., 58., 6., 0., 28., 32., 0., 0. ]
      - [ 3., 44., 60., 19., 27., 42., 27., 47., 38., 24., 13., 47., 40.,
          19., 19., 40., 44., 14., 26., 34., 48., 8., 33., 26., 56., 0.,
          40., 25., 56., 11., 48., 18., 38., 64., 45., 1. ]
      - [ 2., 47., 62., 21., 22., 42., 22., 46., 33., 24., 14., 42., 30.,
          39., 36., 29., 21., 64., 64., 6., 47., 10., 36., 26., 55., 0.,
          39., 24., 56., 11., 52., 13., 37., 64., 41., 0. ]
      - [ 14., 57., 56., 39., 26., 40., 16., 11., 33., 23., 0., 0., 40.,
          48., 49., 6., 40., 36., 50., 24., 8., 0., 40., 22., 16., 0.,
          41., 14., 59., 2., 52., 3., 41., 63., 27., 0. ]
      - [ 14., 59., 57., 9., 47., 35., 42., 38., 57., 12., 27., 44., 60.,
          8., 32., 36., 51., 42., 54., 24., 12., 46., 61., 3., 0., 27.,
          37., 0., 0., 53., 11., 0., 12., 47., 0., 0. ]
      - [ 5., 50., 59., 14., 30., 43., 33., 44., 40., 20., 16., 47., 37.,
          34., 37., 34., 29., 60., 63., 10., 55., 11., 37., 22., 59., 0.,
          36., 24., 60., 18., 54., 18., 31., 63., 39., 1. ]
      - [ 0., 10., 54., 0., 0., 37., 33., 0., 0., 56., 7., 0., 18., 58.,
          30., 3., 41., 47., 50., 37., 54., 9., 17., 48., 57., 8., 16.,
          50., 53., 23., 34., 39., 20., 60., 55., 9. ]
      - [ 0., 2., 53., 0., 0., 17., 40., 0., 0., 39., 20., 0., 1., 57.,
          1., 0., 17., 41., 4., 3., 41., 24., 47., 16., 56., 44., 58.,
          40., 39., 40., 59., 39., 0., 0., 47., 13. ]
      - [ 0., 4., 51., 0., 0., 25., 35., 0., 0., 48., 15., 0., 4., 56.,
          1., 0., 28., 38., 5., 1., 45., 18., 48., 15., 62., 42., 59.,
          40., 36., 40., 60., 37., 0., 0., 47., 13. ]
      - [ 61., 60., 56., 53., 64., 27., 46., 46., 29., 0., 44., 23., 0.,
          1., 61., 6., 0., 20., 50., 0., 0., 40., 31., 0., 0., 56., 12.,
          0., 11., 55., 0., 0., 30., 37., 0., 0. ]
      - [ 16., 51., 64., 29., 62., 64., 64., 37., 14., 7., 60., 48., 0.,
          0., 56., 48., 0., 0., 56., 48., 0., 0., 56., 48., 0., 0., 56.,
          48., 0., 0., 56., 48., 0., 0., 47., 43. ]
      - [ 58., 64., 64., 52., 64., 19., 41., 32., 19., 0., 46., 13., 0.,
          3., 57., 0., 0., 22., 45., 0., 0., 40., 26., 0., 0., 59., 6.,
          0., 8., 52., 0., 0., 24., 26., 0., 0. ]
      - [ 42., 56., 56., 39., 48., 32., 24., 15., 48., 9., 0., 0., 48.,
          45., 50., 10., 54., 30., 44., 35., 6., 0., 24., 40., 28., 2.,
          31., 34., 60., 16., 43., 28., 25., 56., 44., 3. ]
      - [ 18., 60., 60., 14., 50., 25., 34., 44., 56., 8., 16., 48., 47.,
          32., 40., 36., 33., 55., 59., 23., 60., 9., 20., 57., 64., 4.,
          16., 64., 59., 25., 37., 49., 25., 61., 54., 10. ]
      - [ 26., 62., 51., 3., 60., 31., 53., 29., 64., 9., 40., 32., 52.,
          34., 56., 23., 39., 61., 64., 13., 56., 12., 37., 37., 59., 9.,
          24., 49., 48., 29., 45., 37., 14., 56., 52., 8. ]
      - [ 30., 63., 53., 3., 60., 34., 62., 27., 33., 1., 58., 30., 0.,
          10., 64., 19., 0., 37., 53., 1., 3., 61., 26., 0., 27., 57.,
          2., 0., 52., 61., 45., 26., 49., 64., 64., 46. ]
      - [ 34., 64., 63., 19., 63., 53., 58., 55., 64., 32., 41., 64.,
          64., 32., 39., 64., 58., 34., 32., 50., 56., 37., 32., 48.,
          56., 35., 32., 48., 52., 55., 51., 46., 14., 59., 59., 17. ]
      - [ 40., 64., 61., 6., 63., 18., 54., 24., 24., 1., 48., 25., 0.,
          23., 62., 18., 0., 26., 62., 15., 0., 0., 41., 39., 41., 9.,
          40., 45., 54., 44., 54., 41., 18., 58., 58., 10. ]
   decision_functions:
      -
         sv_count: 6
         rho: -1.6326981170829016e-001
         alpha: [ 1.6734842076100447e-009, 1.2035325013563933e-008,
             -3.7752873930085533e-009, -1.8459797901928896e-009,
             -3.1122487665034869e-009, -4.9752932714690517e-009 ]
         index: [ 22, 32, 41, 29, 20, 6 ]
      -
         sv_count: 3
         rho: 3.2295157900664412e-001
         alpha: [ 2.0492047954792586e-008, -6.6329963402196346e-010,
             -1.9828748320770624e-008 ]
         index: [ 32, 21, 10 ]
      -
         sv_count: 5
         rho: 4.6183770354680692e-001
         alpha: [ 3.7240483644548034e-010, 3.4234386448615706e-008,
             -1.5220266608504160e-008, -1.0719368051056841e-008,
             -8.6671566255001860e-009 ]
         index: [ 24, 32, 19, 27, 9 ]
      -
         sv_count: 4
         rho: 4.6322035500438452e-001
         alpha: [ 1.8489571811924065e-008, -1.2505567551705461e-008,
             -8.7464138625717190e-010, -5.1093628739614184e-009 ]
         index: [ 32, 39, 5, 18 ]
      -
         sv_count: 4
         rho: 3.8244583065040461e-001
         alpha: [ 1.0469267745250329e-009, 3.0950792488316688e-008,
             -2.0047630654184823e-008, -1.1950088608656905e-008 ]
         index: [ 24, 32, 34, 43 ]
      -
         sv_count: 3
         rho: 8.0493936948331526e-002
         alpha: [ 2.2038285539065936e-008, -1.5863960463633747e-008,
             -6.1743250754321839e-009 ]
         index: [ 32, 37, 7 ]
      -
         sv_count: 5
         rho: 3.2491831007078376e-001
         alpha: [ 1.1224897289783424e-009, 1.4037304944667200e-008,
             -2.3038249936026984e-009, -3.4707102708844997e-009,
             -9.3852594091583445e-009 ]
         index: [ 24, 32, 42, 13, 4 ]
      -
         sv_count: 6
         rho: -6.8716311372574701e-001
         alpha: [ 1.7588924541728059e-008, 2.1927241596939292e-008,
             1.1696684531520547e-008, 2.1093106744637688e-009,
             -6.7259024231564527e-009, -4.6596258921495229e-008 ]
         index: [ 28, 32, 3, 47, 44, 36 ]
      -
         sv_count: 4
         rho: 2.9947740713070131e-002
         alpha: [ 2.7080225899626769e-009, 1.5974855151170714e-008,
             -5.7695288702391501e-009, -1.2913348870894227e-008 ]
         index: [ 22, 32, 16, 31 ]
      -
         sv_count: 5
         rho: 5.7712338648246442e-001
         alpha: [ 9.1788953392995217e-009, 1.3934717115551872e-008,
             -1.4951574556332789e-008, -1.5094475402697798e-009,
             -6.6525903582488256e-009 ]
         index: [ 20, 6, 21, 46, 10 ]
      -
         sv_count: 7
         rho: 5.2423449645519449e-001
         alpha: [ 1.7977387562944899e-010, 3.6236839744728118e-009,
             1.2967629075724644e-008, 3.1807965098012554e-009,
             8.0840066719781519e-009, -1.0668544201992334e-008,
             -1.7367345905613978e-008 ]
         index: [ 41, 29, 20, 2, 6, 48, 19 ]
      -
         sv_count: 5
         rho: 5.6074968179601670e-001
         alpha: [ 2.4343872242421933e-010, 8.2743752814730922e-009,
             7.0489518869117986e-009, -4.0891126517569876e-009,
             -1.1477653239052127e-008 ]
         index: [ 29, 20, 6, 5, 18 ]
      -
         sv_count: 5
         rho: 4.2257665453044524e-001
         alpha: [ 4.1580656975463632e-010, 8.9770761374161776e-009,
             7.3530745035492024e-009, -1.4348532432668099e-008,
             -2.3974247780519197e-009 ]
         index: [ 29, 20, 6, 34, 23 ]
      -
         sv_count: 4
         rho: 1.5832420983621787e-001
         alpha: [ 6.8219198462357648e-009, 5.6643783697121567e-009,
             -6.5205370363584845e-009, -5.9657611795894369e-009 ]
         index: [ 20, 6, 37, 7 ]
      -
         sv_count: 5
         rho: 7.7612720887732234e-001
         alpha: [ 8.5809367520407734e-009, 1.9900133171263788e-008,
             -1.2056987389083740e-008, -4.3148404206855770e-012,
             -1.6419767693800130e-008 ]
         index: [ 20, 6, 11, 14, 13 ]
      -
         sv_count: 7
         rho: -9.1190184954145784e-002
         alpha: [ 4.6806806552640170e-010, 1.2992813172408041e-010,
             4.6317912955293032e-009, 2.8390663919382410e-009,
             5.5763231198164336e-009, -2.6489927823279000e-009,
             -1.0996184222206559e-008 ]
         index: [ 41, 29, 20, 2, 6, 45, 33 ]
      -
         sv_count: 6
         rho: 2.9089608376095916e-001
         alpha: [ 5.8313073767003955e-010, 1.6201523646128145e-009,
             5.0746159168265402e-009, 1.1481516028787165e-008,
             -2.5357745245341199e-009, -1.6223640523362446e-008 ]
         index: [ 17, 41, 20, 6, 31, 35 ]
      -
         sv_count: 4
         rho: 5.0025046091227217e-002
         alpha: [ 8.0281980882969307e-009, 3.3454574336761295e-008,
             -1.1551572852435501e-008, -2.9931199572622720e-008 ]
         index: [ 21, 10, 25, 19 ]
      -
         sv_count: 3
         rho: 1.9659587473700044e-001
         alpha: [ 7.8149517541151652e-009, 1.2166544281460784e-008,
             -1.9981496035575948e-008 ]
         index: [ 21, 10, 18 ]
      -
         sv_count: 4
         rho: -5.3462150241001226e-002
         alpha: [ 6.1929574465778571e-009, 1.6269393602031666e-008,
             -1.9816082510429591e-008, -2.6462685381799366e-009 ]
         index: [ 21, 10, 34, 23 ]
      -
         sv_count: 4
         rho: -2.1560009787010603e-001
         alpha: [ 4.4065578976513612e-009, 1.1303483061102628e-008,
             -1.1273031446062993e-008, -4.4370095126909921e-009 ]
         index: [ 21, 10, 37, 7 ]
      -
         sv_count: 4
         rho: 1.5025384662847865e-001
         alpha: [ 1.9946292632387475e-008, 2.4968021619932938e-008,
             -4.0974069106212564e-008, -3.9402451461078427e-009 ]
         index: [ 30, 21, 13, 4 ]
      -
         sv_count: 3
         rho: -5.2994711561774210e-001
         alpha: [ 8.6728627137775796e-010, 1.7037090752295450e-008,
             -1.7904377023673215e-008 ]
         index: [ 46, 10, 33 ]
      -
         sv_count: 3
         rho: -2.8264500091866607e-001
         alpha: [ 8.3548171686630407e-009, 1.3874318751480960e-008,
             -2.2229135920144007e-008 ]
         index: [ 21, 10, 31 ]
      -
         sv_count: 4
         rho: 1.9763144624550227e-001
         alpha: [ 4.3986123949542991e-009, 1.7756506118292313e-008,
             -2.1910009851029366e-009, -1.9964117528143671e-008 ]
         index: [ 25, 19, 38, 18 ]
      -
         sv_count: 5
         rho: -6.7920849108262835e-002
         alpha: [ 1.1428324541367627e-008, 2.4919720571768502e-008,
             -2.9735153442899463e-008, -4.7985540898664409e-009,
             -1.8143375803702125e-009 ]
         index: [ 19, 9, 34, 23, 43 ]
      -
         sv_count: 4
         rho: -2.6759659824910598e-001
         alpha: [ 1.8582400659116078e-009, 1.9840119504687849e-008,
             -1.3880209035113660e-008, -7.8181505354857944e-009 ]
         index: [ 48, 19, 37, 7 ]
      -
         sv_count: 6
         rho: 8.0738694512088746e-002
         alpha: [ 8.6649056972510322e-009, 7.8502906351500003e-009,
             7.2443815665383682e-009, -3.4618133291743681e-009,
             -9.2432234672146109e-009, -1.1054541102550429e-008 ]
         index: [ 25, 19, 9, 13, 1, 4 ]
      -
         sv_count: 6
         rho: -8.2497104517124098e-001
         alpha: [ 1.1433112555590374e-008, 2.1433874542999489e-008,
             1.1439105575239002e-009, -1.4840428864524399e-009,
             -1.9735804546591021e-009, -3.0553274315002200e-008 ]
         index: [ 19, 8, 9, 45, 44, 33 ]
      -
         sv_count: 5
         rho: -2.8129824368637113e-001
         alpha: [ 1.2589721884361512e-009, 1.3369048270511543e-008,
             4.4966939932350636e-009, -2.3258556338347173e-009,
             -1.6798858818348042e-008 ]
         index: [ 25, 19, 9, 16, 31 ]
      -
         sv_count: 4
         rho: -2.4968234888498961e-001
         alpha: [ 5.7593160246941656e-009, 1.5598305090760179e-008,
             -1.9625222175255630e-008, -1.7323989401987117e-009 ]
         index: [ 39, 18, 34, 23 ]
      -
         sv_count: 5
         rho: -6.3659636565498345e-001
         alpha: [ 1.9719023674768389e-008, 6.7577859610271808e-009,
             3.1032631915209836e-009, -1.8356363560842205e-008,
             -1.1223709266474347e-008 ]
         index: [ 39, 5, 18, 37, 7 ]
      -
         sv_count: 3
         rho: -1.0466376384804593e-001
         alpha: [ 2.0934907577017110e-008, -8.5098272419734018e-009,
             -1.2425080335043700e-008 ]
         index: [ 18, 42, 4 ]
      -
         sv_count: 4
         rho: -6.5433336223537686e-001
         alpha: [ 9.0297533394284436e-009, 2.7175454332847095e-009,
             4.2776625745513504e-009, -1.6024961347264517e-008 ]
         index: [ 39, 5, 18, 33 ]
      -
         sv_count: 3
         rho: -3.5941197911181672e-001
         alpha: [ 6.8309933123719394e-010, 1.5296755206555320e-008,
             -1.5979854537792512e-008 ]
         index: [ 39, 18, 31 ]
      -
         sv_count: 4
         rho: -2.4495566797774437e-001
         alpha: [ 1.8401571855600726e-008, 6.4123991402040719e-009,
             -1.6125968000165229e-008, -8.6880029956395645e-009 ]
         index: [ 34, 43, 37, 7 ]
      -
         sv_count: 4
         rho: 1.5179219896968305e-001
         alpha: [ 1.7671621943583890e-008, 3.2605683541752499e-009,
             -7.5633092864869167e-009, -1.3368881011272212e-008 ]
         index: [ 34, 23, 42, 4 ]
      -
         sv_count: 7
         rho: -8.0321587500017344e-001
         alpha: [ 2.8404462798647035e-009, 2.6139941447326946e-008,
             2.9497382314597727e-010, 3.1723238010193244e-010,
             1.7930901694021972e-009, -1.0641275000433149e-009,
             -3.0321556599798432e-008 ]
         index: [ 15, 34, 43, 12, 26, 45, 33 ]
      -
         sv_count: 4
         rho: -2.1999790158791022e-001
         alpha: [ 1.6928881321374842e-008, 3.0311706870376883e-009,
             -1.4898630598098660e-008, -5.0614214103138695e-009 ]
         index: [ 34, 23, 31, 35 ]
      -
         sv_count: 4
         rho: 2.6991452576708747e-001
         alpha: [ 9.2601383124298571e-009, 5.2007862056765230e-009,
             -5.0565649141840072e-009, -9.4043596039223762e-009 ]
         index: [ 37, 7, 42, 4 ]
      -
         sv_count: 5
         rho: -4.2973284817266605e-001
         alpha: [ 1.1946137309292467e-008, 9.4197888367116105e-009,
             1.6477333158541331e-009, -1.7486134923635698e-009,
             -2.1265045969494638e-008 ]
         index: [ 37, 7, 0, 45, 33 ]
      -
         sv_count: 3
         rho: 1.2893563703151277e-002
         alpha: [ 8.7602734761851623e-009, 3.9264205845719450e-009,
             -1.2686694060757109e-008 ]
         index: [ 37, 7, 31 ]
      -
         sv_count: 5
         rho: -5.0338407025946030e-001
         alpha: [ 3.9536802909521934e-009, 1.0800460734117036e-009,
             8.5617530484535634e-009, -6.8647428418142059e-010,
             -1.2909005128636043e-008 ]
         index: [ 13, 1, 4, 45, 33 ]
      -
         sv_count: 4
         rho: -3.3356052551232118e-001
         alpha: [ 2.7643979000543262e-009, 1.9499924649103802e-008,
             3.2479476994134502e-009, -2.5512270248571576e-008 ]
         index: [ 42, 13, 40, 31 ]
      -
         sv_count: 4
         rho: 3.1204975269010293e-001
         alpha: [ 2.7983319929478874e-009, 1.3263292362508077e-008,
             -4.3212754959988070e-009, -1.1740348859457157e-008 ]
         index: [ 45, 33, 16, 31 ]
